Experiment	bias spectroscopy	
Date	26.08.2016 14:33:05	
User		
X (m)	59.9268E-9	
Y (m)	127.448E-9	
Z (m)	-81.4676E-9	
Z offset (m)	0E+0	
Settling time (s)	10E-3	
Integration time (s)	15E-3	
Z-Ctrl hold	TRUE	
Final Z (m)	N/A	
Filter type	None	
Order		
Cutoff frq		

[DATA]
Bias calc (V)	Current (A)	LIX 1 omega (A)	Current [bwd] (A)	LIX 1 omega [bwd] (A)
-500.000E-3	-1.00098E-9	4.14949E-12	-1.00513E-9	4.20622E-12
-498.000E-3	-999.180E-12	4.34716E-12	-1.00396E-9	4.39392E-12
-496.000E-3	-997.369E-12	4.31938E-12	-1.00143E-9	4.50453E-12
-494.000E-3	-995.124E-12	4.49369E-12	-999.663E-12	4.64442E-12
-492.000E-3	-992.808E-12	4.74319E-12	-997.358E-12	4.85503E-12
-490.000E-3	-991.516E-12	5.08064E-12	-995.573E-12	5.03564E-12
-488.000E-3	-989.215E-12	5.16720E-12	-992.930E-12	5.09371E-12
-486.000E-3	-987.011E-12	5.47658E-12	-990.854E-12	5.39396E-12
-484.000E-3	-984.393E-12	5.57692E-12	-988.455E-12	5.45362E-12
-482.000E-3	-982.551E-12	5.81132E-12	-986.042E-12	5.85638E-12
-480.000E-3	-979.061E-12	5.90373E-12	-983.333E-12	5.99363E-12
-478.000E-3	-976.915E-12	6.01748E-12	-980.867E-12	6.10144E-12
-476.000E-3	-973.715E-12	6.15975E-12	-978.643E-12	6.20030E-12
-474.000E-3	-971.703E-12	6.45924E-12	-976.286E-12	6.38580E-12
-472.000E-3	-968.390E-12	6.62271E-12	-973.217E-12	6.62730E-12
-470.000E-3	-965.956E-12	6.61033E-12	-970.361E-12	6.78858E-12
-468.000E-3	-962.853E-12	6.66108E-12	-967.017E-12	6.86539E-12
-466.000E-3	-959.982E-12	7.04517E-12	-964.506E-12	7.04104E-12
-464.000E-3	-956.411E-12	7.01111E-12	-960.937E-12	7.03159E-12
-462.000E-3	-953.797E-12	7.12094E-12	-958.194E-12	7.28312E-12
-460.000E-3	-950.553E-12	7.32880E-12	-955.118E-12	7.34139E-12
-458.000E-3	-947.990E-12	7.55285E-12	-952.648E-12	7.49133E-12
-456.000E-3	-944.274E-12	7.86966E-12	-948.846E-12	7.93283E-12
-454.000E-3	-941.310E-12	8.20810E-12	-946.256E-12	8.10250E-12
-452.000E-3	-937.517E-12	8.34187E-12	-942.058E-12	8.35321E-12
-450.000E-3	-934.371E-12	8.76948E-12	-938.818E-12	8.88972E-12
-448.000E-3	-930.211E-12	9.15151E-12	-934.210E-12	9.25899E-12
-446.000E-3	-926.842E-12	9.75046E-12	-930.361E-12	10.0152E-12
-444.000E-3	-922.235E-12	10.4421E-12	-925.692E-12	10.3898E-12
-442.000E-3	-918.037E-12	11.0270E-12	-920.915E-12	11.1687E-12
-440.000E-3	-913.283E-12	11.7727E-12	-916.060E-12	11.5367E-12
-438.000E-3	-907.839E-12	12.2000E-12	-910.869E-12	12.2889E-12
-436.000E-3	-902.620E-12	12.5044E-12	-905.622E-12	12.4879E-12
-434.000E-3	-897.110E-12	12.7519E-12	-900.425E-12	12.8346E-12
-432.000E-3	-892.049E-12	12.5547E-12	-895.515E-12	12.5836E-12
-430.000E-3	-886.452E-12	12.2313E-12	-890.579E-12	12.3339E-12
-428.000E-3	-881.070E-12	11.7342E-12	-885.601E-12	11.7614E-12
-426.000E-3	-876.045E-12	11.1311E-12	-881.033E-12	11.3067E-12
-424.000E-3	-871.233E-12	10.4523E-12	-875.843E-12	10.4271E-12
-422.000E-3	-867.616E-12	10.0191E-12	-871.984E-12	9.92972E-12
-420.000E-3	-863.202E-12	9.36205E-12	-867.430E-12	9.42076E-12
-418.000E-3	-859.973E-12	9.00880E-12	-863.893E-12	9.05247E-12
-416.000E-3	-855.762E-12	8.34726E-12	-859.873E-12	8.44268E-12
-414.000E-3	-852.768E-12	7.99893E-12	-856.518E-12	8.06213E-12
-412.000E-3	-849.394E-12	7.71690E-12	-852.799E-12	7.81869E-12
-410.000E-3	-846.632E-12	7.51589E-12	-849.722E-12	7.54262E-12
-408.000E-3	-843.434E-12	7.34116E-12	-845.932E-12	7.20636E-12
-406.000E-3	-840.312E-12	7.08984E-12	-843.114E-12	7.09047E-12
-404.000E-3	-837.110E-12	6.92545E-12	-839.981E-12	7.12104E-12
-402.000E-3	-833.767E-12	7.02140E-12	-836.908E-12	7.05620E-12
-400.000E-3	-831.063E-12	6.96975E-12	-834.249E-12	7.00650E-12
-398.000E-3	-827.724E-12	7.17271E-12	-831.376E-12	6.98055E-12
-396.000E-3	-824.739E-12	7.08929E-12	-828.506E-12	7.21157E-12
-394.000E-3	-821.661E-12	7.29743E-12	-825.389E-12	7.23174E-12
-392.000E-3	-818.658E-12	7.50018E-12	-821.944E-12	7.45165E-12
-390.000E-3	-815.273E-12	7.74035E-12	-818.819E-12	7.69316E-12
-388.000E-3	-811.387E-12	8.07604E-12	-815.210E-12	8.16742E-12
-386.000E-3	-807.431E-12	8.52979E-12	-811.733E-12	8.50883E-12
-384.000E-3	-803.919E-12	9.06030E-12	-807.798E-12	9.20151E-12
-382.000E-3	-800.047E-12	9.80913E-12	-804.209E-12	9.76712E-12
-380.000E-3	-795.909E-12	10.5314E-12	-799.776E-12	10.5825E-12
-378.000E-3	-791.060E-12	11.3767E-12	-795.048E-12	11.6049E-12
-376.000E-3	-786.556E-12	12.4218E-12	-789.738E-12	12.5105E-12
-374.000E-3	-780.634E-12	13.6532E-12	-784.116E-12	13.7926E-12
-372.000E-3	-775.106E-12	14.9384E-12	-777.789E-12	15.0359E-12
-370.000E-3	-768.617E-12	16.2557E-12	-771.590E-12	16.2975E-12
-368.000E-3	-761.518E-12	17.3080E-12	-764.090E-12	17.5232E-12
-366.000E-3	-753.755E-12	18.2794E-12	-757.242E-12	18.2919E-12
-364.000E-3	-745.834E-12	18.6201E-12	-749.128E-12	18.8352E-12
-362.000E-3	-738.222E-12	18.7849E-12	-741.633E-12	18.8386E-12
-360.000E-3	-730.701E-12	18.3999E-12	-733.101E-12	18.4770E-12
-358.000E-3	-723.023E-12	17.9500E-12	-725.995E-12	18.0309E-12
-356.000E-3	-715.518E-12	17.1100E-12	-717.740E-12	17.1083E-12
-354.000E-3	-708.701E-12	15.9422E-12	-711.061E-12	16.0741E-12
-352.000E-3	-702.163E-12	14.7633E-12	-704.223E-12	14.9318E-12
-350.000E-3	-695.831E-12	13.7111E-12	-698.914E-12	13.6780E-12
-348.000E-3	-690.104E-12	12.4071E-12	-692.993E-12	12.6397E-12
-346.000E-3	-684.449E-12	11.4234E-12	-688.313E-12	11.6208E-12
-344.000E-3	-680.152E-12	10.7144E-12	-683.398E-12	10.7760E-12
-342.000E-3	-675.493E-12	10.1506E-12	-678.985E-12	10.0860E-12
-340.000E-3	-672.199E-12	9.51999E-12	-674.524E-12	9.59072E-12
-338.000E-3	-667.623E-12	9.10730E-12	-670.791E-12	9.02119E-12
-336.000E-3	-664.526E-12	8.58971E-12	-666.782E-12	8.63618E-12
-334.000E-3	-660.401E-12	8.28747E-12	-663.476E-12	8.18061E-12
-332.000E-3	-657.271E-12	7.85903E-12	-659.634E-12	7.93990E-12
-330.000E-3	-653.471E-12	7.60692E-12	-656.716E-12	7.66158E-12
-328.000E-3	-650.625E-12	7.35456E-12	-653.048E-12	7.43525E-12
-326.000E-3	-647.476E-12	7.14369E-12	-650.093E-12	7.28031E-12
-324.000E-3	-644.674E-12	7.03664E-12	-646.686E-12	7.01467E-12
-322.000E-3	-641.888E-12	6.90983E-12	-644.045E-12	7.05894E-12
-320.000E-3	-639.251E-12	6.76738E-12	-640.898E-12	6.88183E-12
-318.000E-3	-636.283E-12	6.76217E-12	-638.193E-12	6.77448E-12
-316.000E-3	-633.126E-12	6.70559E-12	-635.232E-12	6.58735E-12
-314.000E-3	-630.004E-12	6.67775E-12	-632.539E-12	6.72005E-12
-312.000E-3	-626.918E-12	6.65043E-12	-629.748E-12	6.60573E-12
-310.000E-3	-623.902E-12	6.77900E-12	-626.798E-12	6.75522E-12
-308.000E-3	-621.114E-12	6.63481E-12	-624.121E-12	6.73454E-12
-306.000E-3	-618.321E-12	6.62701E-12	-621.313E-12	6.66611E-12
-304.000E-3	-615.587E-12	6.70615E-12	-618.301E-12	6.70271E-12
-302.000E-3	-612.579E-12	6.74002E-12	-615.439E-12	6.71830E-12
-300.000E-3	-609.761E-12	6.59427E-12	-612.505E-12	6.72941E-12
-298.000E-3	-606.891E-12	6.72518E-12	-610.155E-12	6.65625E-12
-296.000E-3	-604.319E-12	6.64815E-12	-606.809E-12	6.78356E-12
-294.000E-3	-601.375E-12	6.69991E-12	-604.580E-12	6.68097E-12
-292.000E-3	-598.645E-12	6.61257E-12	-600.841E-12	6.79166E-12
-290.000E-3	-595.841E-12	6.73952E-12	-598.602E-12	6.79379E-12
-288.000E-3	-593.298E-12	6.75641E-12	-594.653E-12	6.84254E-12
-286.000E-3	-590.444E-12	6.77562E-12	-592.646E-12	6.91120E-12
-284.000E-3	-587.893E-12	6.92529E-12	-589.044E-12	6.89259E-12
-282.000E-3	-584.306E-12	7.05773E-12	-586.631E-12	7.11053E-12
-280.000E-3	-581.448E-12	7.37810E-12	-582.764E-12	7.29898E-12
-278.000E-3	-577.780E-12	7.48879E-12	-580.131E-12	7.54964E-12
-276.000E-3	-574.838E-12	7.70320E-12	-576.452E-12	7.70228E-12
-274.000E-3	-570.915E-12	8.00231E-12	-573.269E-12	8.22297E-12
-272.000E-3	-567.706E-12	8.25839E-12	-569.960E-12	8.37051E-12
-270.000E-3	-563.683E-12	8.90489E-12	-566.426E-12	8.89391E-12
-268.000E-3	-560.320E-12	9.38491E-12	-562.292E-12	9.43582E-12
-266.000E-3	-556.017E-12	10.1134E-12	-558.207E-12	10.1256E-12
-264.000E-3	-551.803E-12	10.9345E-12	-553.690E-12	10.9307E-12
-262.000E-3	-546.957E-12	11.7646E-12	-549.001E-12	11.7695E-12
-260.000E-3	-541.539E-12	12.7117E-12	-543.737E-12	12.7626E-12
-258.000E-3	-536.093E-12	13.7527E-12	-538.386E-12	13.8752E-12
-256.000E-3	-529.775E-12	14.7397E-12	-531.746E-12	14.8145E-12
-254.000E-3	-523.489E-12	15.8413E-12	-525.764E-12	15.9233E-12
-252.000E-3	-516.535E-12	16.7321E-12	-518.278E-12	16.9768E-12
-250.000E-3	-509.531E-12	17.7033E-12	-511.403E-12	17.7749E-12
-248.000E-3	-501.696E-12	18.4225E-12	-503.341E-12	18.4078E-12
-246.000E-3	-493.975E-12	18.9355E-12	-495.793E-12	18.9861E-12
-244.000E-3	-485.846E-12	19.1364E-12	-487.257E-12	19.1211E-12
-242.000E-3	-478.198E-12	19.1241E-12	-479.697E-12	19.1929E-12
-240.000E-3	-470.094E-12	18.7692E-12	-471.289E-12	18.7716E-12
-238.000E-3	-462.624E-12	18.1438E-12	-464.031E-12	18.0681E-12
-236.000E-3	-455.018E-12	17.0433E-12	-456.370E-12	17.2405E-12
-234.000E-3	-448.061E-12	16.0770E-12	-449.757E-12	16.0574E-12
-232.000E-3	-441.304E-12	14.8113E-12	-442.866E-12	14.9626E-12
-230.000E-3	-435.144E-12	13.7271E-12	-436.996E-12	13.8778E-12
-228.000E-3	-429.479E-12	12.7765E-12	-431.096E-12	12.7419E-12
-226.000E-3	-424.207E-12	11.8626E-12	-426.166E-12	12.0107E-12
-224.000E-3	-419.275E-12	11.0577E-12	-421.161E-12	11.0751E-12
-222.000E-3	-414.848E-12	10.2458E-12	-416.812E-12	10.2967E-12
-220.000E-3	-410.697E-12	9.67351E-12	-412.341E-12	9.50092E-12
-218.000E-3	-406.550E-12	9.02483E-12	-408.406E-12	9.15139E-12
-216.000E-3	-403.125E-12	8.55417E-12	-404.512E-12	8.50527E-12
-214.000E-3	-399.310E-12	8.21247E-12	-400.820E-12	8.23470E-12
-212.000E-3	-396.255E-12	7.82812E-12	-397.527E-12	7.85450E-12
-210.000E-3	-392.974E-12	7.63846E-12	-393.926E-12	7.57739E-12
-208.000E-3	-390.004E-12	7.28861E-12	-390.781E-12	7.29080E-12
-206.000E-3	-386.722E-12	7.07965E-12	-387.758E-12	7.16511E-12
-204.000E-3	-383.633E-12	7.00073E-12	-384.833E-12	7.04299E-12
-202.000E-3	-380.525E-12	6.98895E-12	-381.784E-12	7.05686E-12
-200.000E-3	-377.353E-12	7.13953E-12	-378.746E-12	7.06224E-12
-198.000E-3	-374.385E-12	7.20563E-12	-375.695E-12	7.15860E-12
-196.000E-3	-371.133E-12	7.21581E-12	-372.539E-12	7.34273E-12
-194.000E-3	-368.204E-12	7.43471E-12	-369.363E-12	7.48678E-12
-192.000E-3	-364.885E-12	7.45788E-12	-366.126E-12	7.54667E-12
-190.000E-3	-361.779E-12	7.50725E-12	-363.046E-12	7.69168E-12
-188.000E-3	-358.318E-12	7.61749E-12	-359.683E-12	7.63211E-12
-186.000E-3	-355.225E-12	7.66126E-12	-356.400E-12	7.68303E-12
-184.000E-3	-351.727E-12	7.73249E-12	-353.266E-12	7.72782E-12
-182.000E-3	-348.616E-12	7.81031E-12	-350.070E-12	7.80652E-12
-180.000E-3	-345.169E-12	7.81105E-12	-346.769E-12	7.87064E-12
-178.000E-3	-342.058E-12	7.80289E-12	-343.392E-12	8.01281E-12
-176.000E-3	-338.752E-12	7.89037E-12	-340.006E-12	7.97643E-12
-174.000E-3	-335.589E-12	8.00971E-12	-336.559E-12	7.97081E-12
-172.000E-3	-332.078E-12	8.10968E-12	-333.112E-12	8.04904E-12
-170.000E-3	-328.768E-12	8.04928E-12	-329.633E-12	8.02578E-12
-168.000E-3	-325.300E-12	7.88518E-12	-326.352E-12	7.94281E-12
-166.000E-3	-322.042E-12	7.84385E-12	-322.918E-12	7.81088E-12
-164.000E-3	-318.530E-12	7.54816E-12	-319.574E-12	7.56827E-12
-162.000E-3	-315.455E-12	7.36950E-12	-316.318E-12	7.48209E-12
-160.000E-3	-312.335E-12	7.26769E-12	-313.203E-12	7.28763E-12
-158.000E-3	-309.482E-12	7.04707E-12	-310.059E-12	6.98265E-12
-156.000E-3	-306.632E-12	6.79146E-12	-307.266E-12	6.85947E-12
-154.000E-3	-303.651E-12	6.69317E-12	-304.386E-12	6.72150E-12
-152.000E-3	-300.723E-12	6.54047E-12	-301.727E-12	6.58838E-12
-150.000E-3	-297.627E-12	6.44318E-12	-298.859E-12	6.43287E-12
-148.000E-3	-294.966E-12	6.36521E-12	-296.221E-12	6.34837E-12
-146.000E-3	-292.120E-12	6.21163E-12	-293.367E-12	6.30624E-12
-144.000E-3	-289.560E-12	6.14418E-12	-290.834E-12	6.29146E-12
-142.000E-3	-286.868E-12	6.24396E-12	-288.026E-12	6.26676E-12
-140.000E-3	-284.434E-12	6.20528E-12	-285.409E-12	6.23984E-12
-138.000E-3	-281.770E-12	6.13741E-12	-282.888E-12	6.20157E-12
-136.000E-3	-279.296E-12	6.25369E-12	-280.075E-12	6.33172E-12
-134.000E-3	-276.555E-12	6.31883E-12	-277.471E-12	6.30430E-12
-132.000E-3	-273.764E-12	6.35274E-12	-274.646E-12	6.43308E-12
-130.000E-3	-271.012E-12	6.37722E-12	-272.132E-12	6.45602E-12
-128.000E-3	-268.294E-12	6.51530E-12	-269.130E-12	6.50894E-12
-126.000E-3	-265.586E-12	6.49413E-12	-266.513E-12	6.55297E-12
-124.000E-3	-262.941E-12	6.60903E-12	-263.447E-12	6.65607E-12
-122.000E-3	-260.140E-12	6.79158E-12	-260.801E-12	6.82367E-12
-120.000E-3	-257.308E-12	6.86104E-12	-257.693E-12	6.94189E-12
-118.000E-3	-254.353E-12	7.04677E-12	-254.866E-12	6.92840E-12
-116.000E-3	-251.242E-12	7.19472E-12	-251.732E-12	7.07621E-12
-114.000E-3	-248.067E-12	7.29758E-12	-248.628E-12	7.35762E-12
-112.000E-3	-244.729E-12	7.54443E-12	-245.428E-12	7.57329E-12
-110.000E-3	-241.376E-12	7.83234E-12	-242.150E-12	7.80519E-12
-108.000E-3	-237.924E-12	8.08924E-12	-238.772E-12	8.13994E-12
-106.000E-3	-234.418E-12	8.54171E-12	-235.131E-12	8.55786E-12
-104.000E-3	-230.705E-12	8.90388E-12	-231.522E-12	8.91401E-12
-102.000E-3	-226.968E-12	9.40054E-12	-227.577E-12	9.42764E-12
-100.000E-3	-222.763E-12	9.85821E-12	-223.716E-12	9.91240E-12
-98.0000E-3	-218.518E-12	10.4435E-12	-219.232E-12	10.3834E-12
-96.0000E-3	-213.875E-12	10.8987E-12	-214.877E-12	10.9996E-12
-94.0000E-3	-209.125E-12	11.5897E-12	-209.990E-12	11.6154E-12
-92.0000E-3	-204.005E-12	12.3331E-12	-205.037E-12	12.3290E-12
-90.0000E-3	-198.680E-12	13.0996E-12	-199.341E-12	13.1449E-12
-88.0000E-3	-193.068E-12	13.9481E-12	-193.744E-12	14.0410E-12
-86.0000E-3	-187.066E-12	14.7727E-12	-187.342E-12	14.7698E-12
-84.0000E-3	-180.816E-12	15.4429E-12	-181.168E-12	15.5086E-12
-82.0000E-3	-174.200E-12	16.0174E-12	-174.301E-12	16.0189E-12
-80.0000E-3	-167.290E-12	16.6116E-12	-167.543E-12	16.6174E-12
-78.0000E-3	-160.118E-12	16.9081E-12	-160.363E-12	16.9290E-12
-76.0000E-3	-152.971E-12	17.1697E-12	-153.295E-12	17.1919E-12
-74.0000E-3	-145.625E-12	17.2955E-12	-145.967E-12	17.2794E-12
-72.0000E-3	-138.463E-12	17.1728E-12	-138.820E-12	17.2715E-12
-70.0000E-3	-131.215E-12	16.9406E-12	-131.599E-12	16.9060E-12
-68.0000E-3	-124.386E-12	16.4361E-12	-124.579E-12	16.4362E-12
-66.0000E-3	-117.585E-12	15.8379E-12	-117.859E-12	15.8305E-12
-64.0000E-3	-111.102E-12	15.1501E-12	-111.294E-12	15.2245E-12
-62.0000E-3	-104.765E-12	14.3523E-12	-105.035E-12	14.3871E-12
-60.0000E-3	-98.8528E-12	13.6140E-12	-99.0746E-12	13.6368E-12
-58.0000E-3	-93.0328E-12	12.9302E-12	-93.4950E-12	13.0675E-12
-56.0000E-3	-87.7042E-12	12.2349E-12	-88.0422E-12	12.3244E-12
-54.0000E-3	-82.6028E-12	11.6551E-12	-83.0153E-12	11.7421E-12
-52.0000E-3	-77.8379E-12	11.0781E-12	-78.1080E-12	11.1615E-12
-50.0000E-3	-73.2623E-12	10.5455E-12	-73.4989E-12	10.6197E-12
-48.0000E-3	-68.9382E-12	10.0681E-12	-69.1056E-12	10.0355E-12
-46.0000E-3	-64.7129E-12	9.60443E-12	-64.9201E-12	9.64743E-12
-44.0000E-3	-60.7774E-12	9.25158E-12	-60.8564E-12	9.27840E-12
-42.0000E-3	-56.8872E-12	8.83121E-12	-56.9821E-12	8.87817E-12
-40.0000E-3	-53.2629E-12	8.53104E-12	-53.2276E-12	8.56306E-12
-38.0000E-3	-49.6689E-12	8.13210E-12	-49.7133E-12	8.09294E-12
-36.0000E-3	-46.3605E-12	7.77614E-12	-46.3031E-12	7.80482E-12
-34.0000E-3	-43.0262E-12	7.55373E-12	-43.0222E-12	7.54970E-12
-32.0000E-3	-39.7814E-12	7.39193E-12	-39.8259E-12	7.38477E-12
-30.0000E-3	-36.6099E-12	7.26400E-12	-36.6788E-12	7.27552E-12
-28.0000E-3	-33.6020E-12	7.12971E-12	-33.6105E-12	7.23213E-12
-26.0000E-3	-30.5792E-12	7.08194E-12	-30.5847E-12	7.11790E-12
-24.0000E-3	-27.5779E-12	7.01230E-12	-27.5344E-12	6.94264E-12
-22.0000E-3	-24.5892E-12	6.89948E-12	-24.6529E-12	6.86492E-12
-20.0000E-3	-21.6751E-12	6.79062E-12	-21.7253E-12	6.73469E-12
-18.0000E-3	-18.8117E-12	6.67902E-12	-18.9028E-12	6.64271E-12
-16.0000E-3	-16.0170E-12	6.52578E-12	-16.0310E-12	6.55881E-12
-14.0000E-3	-13.2435E-12	6.51017E-12	-13.2631E-12	6.44451E-12
-12.0000E-3	-10.5372E-12	6.32619E-12	-10.5504E-12	6.46730E-12
-10.0000E-3	-7.76050E-12	6.34169E-12	-7.72589E-12	6.39188E-12
-8.00000E-3	-5.11736E-12	6.32453E-12	-5.07237E-12	6.40621E-12
-6.00000E-3	-2.39860E-12	6.32099E-12	-2.26729E-12	6.41364E-12
-4.00000E-3	376.292E-15	6.44986E-12	424.215E-15	6.41141E-12
-2.00000E-3	3.14469E-12	6.49703E-12	3.18188E-12	6.50212E-12
0.00000E+0	5.95600E-12	6.66442E-12	5.99894E-12	6.61605E-12
2.00000E-3	8.89498E-12	6.83370E-12	8.91714E-12	6.92392E-12
4.00000E-3	11.8727E-12	7.13786E-12	11.9380E-12	7.09218E-12
6.00000E-3	14.9575E-12	7.36531E-12	15.0127E-12	7.40692E-12
8.00000E-3	18.1477E-12	7.68610E-12	18.1948E-12	7.66063E-12
10.0000E-3	21.5223E-12	8.04287E-12	21.5567E-12	8.00120E-12
12.0000E-3	24.9007E-12	8.25607E-12	24.9851E-12	8.30824E-12
14.0000E-3	28.4088E-12	8.38110E-12	28.5296E-12	8.45236E-12
16.0000E-3	31.9942E-12	8.55892E-12	32.1048E-12	8.59208E-12
18.0000E-3	35.7106E-12	8.70152E-12	35.8193E-12	8.79145E-12
20.0000E-3	39.3638E-12	8.87013E-12	39.4537E-12	8.87191E-12
22.0000E-3	43.0701E-12	8.77955E-12	43.2248E-12	8.79091E-12
24.0000E-3	46.7532E-12	8.76068E-12	46.9059E-12	8.75514E-12
26.0000E-3	50.4513E-12	8.63341E-12	50.6969E-12	8.70607E-12
28.0000E-3	54.1574E-12	8.62911E-12	54.3495E-12	8.58759E-12
30.0000E-3	57.7498E-12	8.51609E-12	57.9700E-12	8.56063E-12
32.0000E-3	61.3012E-12	8.42899E-12	61.5483E-12	8.40272E-12
34.0000E-3	64.8973E-12	8.36298E-12	65.1086E-12	8.33857E-12
36.0000E-3	68.4971E-12	8.19979E-12	68.5678E-12	8.19181E-12
38.0000E-3	71.9324E-12	8.05098E-12	72.1056E-12	8.09108E-12
40.0000E-3	75.3725E-12	7.89530E-12	75.4769E-12	7.91947E-12
42.0000E-3	78.6699E-12	7.76732E-12	78.8198E-12	7.75603E-12
44.0000E-3	81.9046E-12	7.57110E-12	82.0689E-12	7.60356E-12
46.0000E-3	85.0455E-12	7.48260E-12	85.2668E-12	7.42298E-12
48.0000E-3	88.1966E-12	7.25913E-12	88.3600E-12	7.28372E-12
50.0000E-3	91.1965E-12	7.01468E-12	91.4343E-12	7.08907E-12
52.0000E-3	94.2347E-12	6.86154E-12	94.4670E-12	6.92930E-12
54.0000E-3	97.1267E-12	6.84783E-12	97.4464E-12	6.81126E-12
56.0000E-3	100.133E-12	6.74703E-12	100.352E-12	6.81500E-12
58.0000E-3	103.045E-12	6.81990E-12	103.345E-12	6.72881E-12
60.0000E-3	105.884E-12	6.76730E-12	106.156E-12	6.78978E-12
62.0000E-3	108.793E-12	6.69502E-12	109.119E-12	6.81109E-12
64.0000E-3	111.608E-12	6.75056E-12	111.851E-12	6.65215E-12
66.0000E-3	114.465E-12	6.64767E-12	114.786E-12	6.71603E-12
68.0000E-3	117.282E-12	6.62534E-12	117.494E-12	6.73810E-12
70.0000E-3	120.184E-12	6.65968E-12	120.476E-12	6.69811E-12
72.0000E-3	122.976E-12	6.62391E-12	123.189E-12	6.57238E-12
74.0000E-3	125.886E-12	6.61479E-12	126.076E-12	6.57824E-12
76.0000E-3	128.672E-12	6.61582E-12	128.902E-12	6.66270E-12
78.0000E-3	131.577E-12	6.68419E-12	131.762E-12	6.68677E-12
80.0000E-3	134.271E-12	6.68793E-12	134.529E-12	6.70230E-12
82.0000E-3	137.141E-12	6.79421E-12	137.417E-12	6.67705E-12
84.0000E-3	139.955E-12	6.77990E-12	140.161E-12	6.78376E-12
86.0000E-3	142.959E-12	6.75071E-12	143.133E-12	6.84956E-12
88.0000E-3	145.779E-12	6.96255E-12	146.021E-12	7.00298E-12
90.0000E-3	148.939E-12	7.04506E-12	149.059E-12	7.01302E-12
92.0000E-3	151.954E-12	7.30899E-12	152.138E-12	7.32286E-12
94.0000E-3	155.172E-12	7.46896E-12	155.420E-12	7.54116E-12
96.0000E-3	158.310E-12	7.65309E-12	158.602E-12	7.71717E-12
98.0000E-3	161.673E-12	7.89848E-12	162.002E-12	7.95993E-12
100.000E-3	165.009E-12	8.12710E-12	165.303E-12	8.21963E-12
102.000E-3	168.571E-12	8.38841E-12	168.946E-12	8.41351E-12
104.000E-3	172.187E-12	8.69105E-12	172.500E-12	8.68863E-12
106.000E-3	176.012E-12	9.06927E-12	176.313E-12	8.96241E-12
108.000E-3	179.935E-12	9.26917E-12	180.137E-12	9.26885E-12
110.000E-3	183.917E-12	9.64566E-12	184.241E-12	9.63465E-12
112.000E-3	188.088E-12	9.87168E-12	188.459E-12	9.90021E-12
114.000E-3	192.413E-12	10.2215E-12	192.784E-12	10.2008E-12
116.000E-3	196.691E-12	10.5353E-12	197.069E-12	10.4911E-12
118.000E-3	201.352E-12	10.8209E-12	201.668E-12	10.9137E-12
120.000E-3	205.833E-12	11.1218E-12	206.064E-12	11.0709E-12
122.000E-3	210.661E-12	11.3271E-12	210.901E-12	11.2500E-12
124.000E-3	215.466E-12	11.6153E-12	215.584E-12	11.6830E-12
126.000E-3	220.677E-12	11.9073E-12	220.913E-12	11.8534E-12
128.000E-3	225.774E-12	12.1181E-12	225.748E-12	12.1986E-12
130.000E-3	231.000E-12	12.4117E-12	231.261E-12	12.4375E-12
132.000E-3	236.094E-12	12.5339E-12	236.220E-12	12.5541E-12
134.000E-3	241.251E-12	12.6043E-12	241.726E-12	12.6435E-12
136.000E-3	246.480E-12	12.5510E-12	246.812E-12	12.5646E-12
138.000E-3	251.646E-12	12.3739E-12	252.285E-12	12.4084E-12
140.000E-3	256.737E-12	12.3460E-12	257.482E-12	12.3426E-12
142.000E-3	262.030E-12	12.1536E-12	262.796E-12	12.1829E-12
144.000E-3	267.080E-12	11.9109E-12	267.909E-12	11.9124E-12
146.000E-3	272.112E-12	11.5489E-12	272.991E-12	11.5934E-12
148.000E-3	277.239E-12	11.3162E-12	277.774E-12	11.3025E-12
150.000E-3	281.897E-12	10.9771E-12	282.621E-12	10.9820E-12
152.000E-3	286.616E-12	10.7961E-12	287.083E-12	10.8197E-12
154.000E-3	291.162E-12	10.5232E-12	291.591E-12	10.6203E-12
156.000E-3	295.580E-12	10.3360E-12	295.638E-12	10.2741E-12
158.000E-3	299.994E-12	10.1581E-12	299.969E-12	10.0774E-12
160.000E-3	304.267E-12	9.87291E-12	304.080E-12	9.90560E-12
162.000E-3	308.519E-12	9.67637E-12	308.545E-12	9.74094E-12
164.000E-3	312.571E-12	9.57783E-12	312.518E-12	9.56011E-12
166.000E-3	316.543E-12	9.37864E-12	316.797E-12	9.44329E-12
168.000E-3	320.432E-12	9.15297E-12	320.733E-12	9.09384E-12
170.000E-3	324.320E-12	8.97500E-12	324.706E-12	9.01266E-12
172.000E-3	327.887E-12	8.88560E-12	328.541E-12	8.91639E-12
174.000E-3	331.797E-12	8.80346E-12	331.969E-12	8.73644E-12
176.000E-3	335.269E-12	8.60562E-12	335.826E-12	8.64698E-12
178.000E-3	339.270E-12	8.55999E-12	339.401E-12	8.54327E-12
180.000E-3	342.535E-12	8.40212E-12	343.271E-12	8.38742E-12
182.000E-3	346.387E-12	8.34220E-12	346.830E-12	8.41234E-12
184.000E-3	349.740E-12	8.26577E-12	350.510E-12	8.30153E-12
186.000E-3	353.499E-12	8.19453E-12	354.088E-12	8.32199E-12
188.000E-3	356.520E-12	8.20371E-12	357.632E-12	8.11296E-12
190.000E-3	360.149E-12	8.14652E-12	361.037E-12	8.10123E-12
192.000E-3	363.315E-12	8.09917E-12	364.420E-12	8.02994E-12
194.000E-3	367.071E-12	8.06756E-12	367.643E-12	8.08774E-12
196.000E-3	370.552E-12	8.08934E-12	370.952E-12	8.03534E-12
198.000E-3	374.043E-12	7.98504E-12	374.284E-12	7.96883E-12
200.000E-3	377.549E-12	7.99838E-12	377.759E-12	8.02194E-12
202.000E-3	381.141E-12	8.08194E-12	381.111E-12	7.96897E-12
204.000E-3	384.492E-12	7.89419E-12	384.626E-12	8.02136E-12
206.000E-3	387.913E-12	7.85171E-12	387.848E-12	7.87578E-12
208.000E-3	390.797E-12	7.75006E-12	391.270E-12	7.77395E-12
210.000E-3	394.290E-12	7.69986E-12	394.409E-12	7.71220E-12
212.000E-3	397.417E-12	7.74704E-12	397.809E-12	7.69013E-12
214.000E-3	400.965E-12	7.83985E-12	401.187E-12	7.76623E-12
216.000E-3	404.107E-12	8.03636E-12	404.763E-12	7.95704E-12
218.000E-3	407.779E-12	8.12248E-12	408.211E-12	8.19494E-12
220.000E-3	410.986E-12	8.28626E-12	411.715E-12	8.29272E-12
222.000E-3	414.396E-12	8.29564E-12	415.555E-12	8.44104E-12
224.000E-3	417.659E-12	8.33996E-12	418.784E-12	8.36062E-12
226.000E-3	421.331E-12	8.26190E-12	422.637E-12	8.34012E-12
228.000E-3	424.830E-12	8.26005E-12	425.541E-12	8.34968E-12
230.000E-3	428.542E-12	8.23113E-12	429.438E-12	8.21396E-12
232.000E-3	432.029E-12	8.23300E-12	432.582E-12	8.21739E-12
234.000E-3	435.729E-12	8.17155E-12	436.353E-12	8.21698E-12
236.000E-3	439.463E-12	8.24228E-12	439.612E-12	8.28156E-12
238.000E-3	443.046E-12	8.20681E-12	443.416E-12	8.22418E-12
240.000E-3	446.645E-12	8.36832E-12	446.709E-12	8.36481E-12
242.000E-3	449.969E-12	8.39911E-12	450.156E-12	8.40005E-12
244.000E-3	453.552E-12	8.49128E-12	453.562E-12	8.49944E-12
246.000E-3	457.421E-12	8.48513E-12	457.192E-12	8.46479E-12
248.000E-3	460.799E-12	8.53058E-12	460.492E-12	8.51920E-12
250.000E-3	464.518E-12	8.51325E-12	464.484E-12	8.49543E-12
252.000E-3	467.784E-12	8.45376E-12	468.123E-12	8.55604E-12
254.000E-3	471.460E-12	8.35446E-12	472.136E-12	8.42084E-12
256.000E-3	474.933E-12	8.41346E-12	475.676E-12	8.52936E-12
258.000E-3	478.475E-12	8.35994E-12	479.407E-12	8.42427E-12
260.000E-3	482.163E-12	8.39414E-12	483.036E-12	8.35785E-12
262.000E-3	485.584E-12	8.34170E-12	486.451E-12	8.42711E-12
264.000E-3	488.991E-12	8.35428E-12	489.927E-12	8.28985E-12
266.000E-3	492.608E-12	8.39140E-12	493.155E-12	8.27759E-12
268.000E-3	496.242E-12	8.28937E-12	497.070E-12	8.39060E-12
270.000E-3	499.864E-12	8.16988E-12	500.191E-12	8.16577E-12
272.000E-3	503.304E-12	8.20541E-12	504.323E-12	8.25826E-12
274.000E-3	507.090E-12	8.21942E-12	507.526E-12	8.22346E-12
276.000E-3	510.413E-12	8.21001E-12	511.290E-12	8.26919E-12
278.000E-3	514.128E-12	8.09525E-12	514.327E-12	8.12503E-12
280.000E-3	517.371E-12	8.15108E-12	517.937E-12	8.14930E-12
282.000E-3	521.129E-12	8.18033E-12	521.082E-12	8.08417E-12
284.000E-3	524.214E-12	8.11207E-12	524.442E-12	8.18534E-12
286.000E-3	527.540E-12	8.10752E-12	527.875E-12	8.07820E-12
288.000E-3	530.971E-12	8.02322E-12	531.282E-12	8.07390E-12
290.000E-3	534.474E-12	7.99207E-12	534.612E-12	7.99203E-12
292.000E-3	537.994E-12	8.10520E-12	538.206E-12	7.96117E-12
294.000E-3	541.354E-12	8.11328E-12	541.690E-12	8.03965E-12
296.000E-3	544.958E-12	8.09370E-12	545.169E-12	8.17273E-12
298.000E-3	548.204E-12	8.13415E-12	548.441E-12	8.19787E-12
300.000E-3	551.692E-12	8.20793E-12	551.975E-12	8.22935E-12
302.000E-3	554.943E-12	8.15766E-12	555.334E-12	8.23451E-12
304.000E-3	558.644E-12	8.09780E-12	559.107E-12	8.20025E-12
306.000E-3	562.031E-12	8.07313E-12	562.444E-12	8.12153E-12
308.000E-3	565.530E-12	8.11626E-12	566.555E-12	8.08563E-12
310.000E-3	568.987E-12	8.06181E-12	570.002E-12	8.16469E-12
312.000E-3	572.525E-12	8.05409E-12	573.589E-12	8.17511E-12
314.000E-3	576.020E-12	8.16537E-12	576.998E-12	8.20358E-12
316.000E-3	579.397E-12	8.07286E-12	580.243E-12	8.16088E-12
318.000E-3	583.092E-12	8.20516E-12	583.714E-12	8.13927E-12
320.000E-3	586.185E-12	8.26097E-12	586.918E-12	8.21302E-12
322.000E-3	589.832E-12	8.29471E-12	590.483E-12	8.29057E-12
324.000E-3	593.327E-12	8.24628E-12	593.670E-12	8.38049E-12
326.000E-3	597.275E-12	8.35419E-12	597.248E-12	8.33516E-12
328.000E-3	600.960E-12	8.51966E-12	600.515E-12	8.37452E-12
330.000E-3	604.690E-12	8.44264E-12	604.076E-12	8.53862E-12
332.000E-3	608.083E-12	8.47201E-12	607.523E-12	8.56538E-12
334.000E-3	611.514E-12	8.44248E-12	611.236E-12	8.62575E-12
336.000E-3	615.064E-12	8.60017E-12	615.105E-12	8.56390E-12
338.000E-3	618.624E-12	8.67587E-12	618.931E-12	8.63111E-12
340.000E-3	622.022E-12	8.79299E-12	623.005E-12	8.88112E-12
342.000E-3	626.052E-12	9.02942E-12	626.717E-12	8.97164E-12
344.000E-3	629.879E-12	9.05041E-12	630.829E-12	9.05878E-12
346.000E-3	633.751E-12	9.14939E-12	634.938E-12	9.16862E-12
348.000E-3	637.581E-12	9.19601E-12	639.048E-12	9.32298E-12
350.000E-3	641.616E-12	9.43075E-12	642.868E-12	9.46911E-12
352.000E-3	645.804E-12	9.58100E-12	646.725E-12	9.53605E-12
354.000E-3	649.865E-12	9.58376E-12	650.609E-12	9.56684E-12
356.000E-3	654.014E-12	9.77137E-12	654.520E-12	9.68061E-12
358.000E-3	658.134E-12	9.74863E-12	658.652E-12	9.87669E-12
360.000E-3	662.270E-12	9.95803E-12	662.412E-12	9.87275E-12
362.000E-3	666.535E-12	9.96960E-12	666.630E-12	9.95460E-12
364.000E-3	671.101E-12	10.0192E-12	671.118E-12	10.0838E-12
366.000E-3	675.160E-12	10.1872E-12	675.012E-12	10.0042E-12
368.000E-3	679.616E-12	10.0405E-12	679.525E-12	10.2158E-12
370.000E-3	683.822E-12	10.1131E-12	683.470E-12	10.1187E-12
372.000E-3	688.088E-12	10.2772E-12	688.387E-12	10.2076E-12
374.000E-3	692.488E-12	10.3197E-12	692.510E-12	10.3396E-12
376.000E-3	696.609E-12	10.3551E-12	697.117E-12	10.3342E-12
378.000E-3	701.214E-12	10.3398E-12	701.340E-12	10.2987E-12
380.000E-3	705.254E-12	10.2662E-12	706.045E-12	10.3679E-12
382.000E-3	709.695E-12	10.2251E-12	710.417E-12	10.2244E-12
384.000E-3	713.657E-12	10.3344E-12	714.563E-12	10.2873E-12
386.000E-3	718.310E-12	10.1318E-12	718.780E-12	10.1155E-12
388.000E-3	722.373E-12	10.0850E-12	722.690E-12	9.93709E-12
390.000E-3	726.968E-12	9.87524E-12	727.628E-12	9.85407E-12
392.000E-3	731.077E-12	9.80836E-12	731.368E-12	9.77149E-12
394.000E-3	735.433E-12	9.55451E-12	736.274E-12	9.64973E-12
396.000E-3	739.718E-12	9.63151E-12	739.768E-12	9.52606E-12
398.000E-3	743.829E-12	9.42250E-12	744.320E-12	9.47034E-12
400.000E-3	747.839E-12	9.43550E-12	747.997E-12	9.45524E-12
402.000E-3	752.022E-12	9.36244E-12	752.141E-12	9.42229E-12
404.000E-3	755.902E-12	9.27516E-12	755.614E-12	9.33392E-12
406.000E-3	759.564E-12	9.25056E-12	759.984E-12	9.17723E-12
408.000E-3	763.559E-12	9.05706E-12	763.462E-12	9.16647E-12
410.000E-3	767.362E-12	9.09600E-12	767.266E-12	9.18281E-12
412.000E-3	771.222E-12	8.97503E-12	770.787E-12	8.92962E-12
414.000E-3	774.679E-12	8.83546E-12	774.923E-12	8.93626E-12
416.000E-3	778.360E-12	8.74287E-12	778.131E-12	8.87654E-12
418.000E-3	781.670E-12	8.80067E-12	782.286E-12	8.68639E-12
420.000E-3	786.046E-12	8.79499E-12	785.722E-12	8.73038E-12
422.000E-3	789.337E-12	8.70738E-12	790.041E-12	8.67934E-12
424.000E-3	793.563E-12	8.60494E-12	793.549E-12	8.73165E-12
426.000E-3	796.567E-12	8.70202E-12	797.791E-12	8.61670E-12
428.000E-3	800.990E-12	8.56601E-12	800.883E-12	8.72493E-12
430.000E-3	803.696E-12	8.54937E-12	805.129E-12	8.58327E-12
432.000E-3	808.577E-12	8.60285E-12	809.126E-12	8.52009E-12
434.000E-3	811.749E-12	8.49114E-12	812.759E-12	8.49522E-12
436.000E-3	816.033E-12	8.39995E-12	816.299E-12	8.42741E-12
438.000E-3	819.195E-12	8.22695E-12	819.872E-12	8.37730E-12
440.000E-3	822.719E-12	8.21022E-12	822.859E-12	8.22689E-12
442.000E-3	826.080E-12	8.30518E-12	826.515E-12	8.18433E-12
444.000E-3	829.825E-12	8.27415E-12	829.537E-12	8.19361E-12
446.000E-3	833.281E-12	8.31576E-12	833.329E-12	8.25227E-12
448.000E-3	836.497E-12	8.28793E-12	836.087E-12	8.26993E-12
450.000E-3	839.836E-12	8.28839E-12	840.076E-12	8.30890E-12
452.000E-3	843.350E-12	8.23345E-12	843.028E-12	8.19429E-12
454.000E-3	846.916E-12	8.40946E-12	846.937E-12	8.26309E-12
456.000E-3	850.579E-12	8.39935E-12	850.001E-12	8.35576E-12
458.000E-3	854.035E-12	8.40166E-12	853.746E-12	8.21394E-12
460.000E-3	857.569E-12	8.32112E-12	857.167E-12	8.27193E-12
462.000E-3	860.909E-12	8.20926E-12	860.799E-12	8.17019E-12
464.000E-3	864.422E-12	8.38883E-12	864.904E-12	8.32543E-12
466.000E-3	868.237E-12	8.32779E-12	868.602E-12	8.23170E-12
468.000E-3	871.900E-12	8.39322E-12	872.435E-12	8.16974E-12
470.000E-3	875.207E-12	8.25268E-12	875.751E-12	8.20682E-12
472.000E-3	878.738E-12	8.36041E-12	879.649E-12	8.28522E-12
474.000E-3	882.606E-12	8.28688E-12	882.952E-12	8.27013E-12
476.000E-3	885.869E-12	8.25817E-12	886.458E-12	8.28579E-12
478.000E-3	889.498E-12	8.13159E-12	889.918E-12	8.16403E-12
480.000E-3	893.059E-12	8.02086E-12	893.226E-12	8.09155E-12
482.000E-3	896.531E-12	7.87189E-12	896.749E-12	7.84101E-12
484.000E-3	899.995E-12	7.81206E-12	899.814E-12	7.82074E-12
486.000E-3	903.376E-12	7.58072E-12	902.775E-12	7.67147E-12
488.000E-3	906.829E-12	7.80511E-12	905.817E-12	7.53411E-12
490.000E-3	909.577E-12	7.59289E-12	908.734E-12	7.55580E-12
492.000E-3	913.068E-12	7.69126E-12	912.045E-12	7.65378E-12
494.000E-3	915.736E-12	7.85899E-12	915.397E-12	7.62567E-12
496.000E-3	918.971E-12	7.83158E-12	918.400E-12	7.79109E-12
498.000E-3	921.856E-12	7.64958E-12	922.061E-12	7.70359E-12
500.000E-3	925.603E-12	7.72632E-12	925.145E-12	7.64470E-12
