Experiment	bias spectroscopy	
Date	26.08.2016 14:49:02	
User		
X (m)	59.9268E-9	
Y (m)	127.448E-9	
Z (m)	-81.4586E-9	
Z offset (m)	0E+0	
Settling time (s)	10E-3	
Integration time (s)	15E-3	
Z-Ctrl hold	TRUE	
Final Z (m)	N/A	
Filter type	None	
Order		
Cutoff frq		

[DATA]
Bias calc (V)	Current (A)	LIX 1 omega (A)	Current [bwd] (A)	LIX 1 omega [bwd] (A)
-500.000E-3	-999.444E-12	4.22534E-12	-1.00222E-9	4.28466E-12
-498.000E-3	-997.904E-12	4.25380E-12	-1.00020E-9	4.46679E-12
-496.000E-3	-995.075E-12	4.39572E-12	-998.169E-12	4.50666E-12
-494.000E-3	-993.301E-12	4.54727E-12	-996.355E-12	4.65402E-12
-492.000E-3	-991.089E-12	4.83758E-12	-994.215E-12	4.75975E-12
-490.000E-3	-989.562E-12	4.86830E-12	-992.714E-12	4.98301E-12
-488.000E-3	-987.347E-12	5.17059E-12	-990.452E-12	5.18853E-12
-486.000E-3	-985.366E-12	5.28075E-12	-988.920E-12	5.39494E-12
-484.000E-3	-983.416E-12	5.40272E-12	-986.220E-12	5.54185E-12
-482.000E-3	-981.085E-12	5.71442E-12	-983.872E-12	5.66899E-12
-480.000E-3	-979.043E-12	5.75443E-12	-981.117E-12	5.76305E-12
-478.000E-3	-976.497E-12	6.06157E-12	-978.874E-12	6.26537E-12
-476.000E-3	-973.959E-12	6.29404E-12	-976.155E-12	6.33129E-12
-474.000E-3	-971.306E-12	6.24001E-12	-974.075E-12	6.36401E-12
-472.000E-3	-968.279E-12	6.44958E-12	-971.137E-12	6.61807E-12
-470.000E-3	-965.648E-12	6.56742E-12	-968.599E-12	6.75745E-12
-468.000E-3	-962.266E-12	6.83208E-12	-965.457E-12	6.75941E-12
-466.000E-3	-959.642E-12	6.91744E-12	-961.946E-12	6.87606E-12
-464.000E-3	-956.251E-12	6.98686E-12	-958.710E-12	7.08014E-12
-462.000E-3	-953.520E-12	7.14685E-12	-955.182E-12	7.15567E-12
-460.000E-3	-949.727E-12	7.46554E-12	-952.486E-12	7.46746E-12
-458.000E-3	-946.646E-12	7.57228E-12	-948.693E-12	7.47198E-12
-456.000E-3	-943.072E-12	7.79369E-12	-945.798E-12	7.85296E-12
-454.000E-3	-939.511E-12	8.01218E-12	-942.062E-12	8.17255E-12
-452.000E-3	-935.918E-12	8.44307E-12	-939.263E-12	8.31804E-12
-450.000E-3	-932.216E-12	8.69815E-12	-935.264E-12	8.79421E-12
-448.000E-3	-928.914E-12	9.22491E-12	-931.675E-12	9.24564E-12
-446.000E-3	-925.022E-12	9.75512E-12	-927.476E-12	9.80600E-12
-444.000E-3	-921.574E-12	10.3437E-12	-923.718E-12	10.2322E-12
-442.000E-3	-916.897E-12	10.7805E-12	-918.547E-12	11.0344E-12
-440.000E-3	-912.591E-12	11.5749E-12	-914.959E-12	11.6649E-12
-438.000E-3	-906.819E-12	12.1999E-12	-909.545E-12	12.2889E-12
-436.000E-3	-901.964E-12	12.4856E-12	-905.311E-12	12.4534E-12
-434.000E-3	-895.699E-12	12.6165E-12	-899.511E-12	12.6981E-12
-432.000E-3	-891.244E-12	12.6042E-12	-894.634E-12	12.5182E-12
-430.000E-3	-885.289E-12	12.2662E-12	-888.231E-12	12.3463E-12
-428.000E-3	-880.966E-12	11.8121E-12	-883.495E-12	11.8035E-12
-426.000E-3	-874.865E-12	11.1315E-12	-878.097E-12	11.2838E-12
-424.000E-3	-871.598E-12	10.5365E-12	-874.009E-12	10.5297E-12
-422.000E-3	-866.096E-12	9.89391E-12	-869.150E-12	10.0640E-12
-420.000E-3	-863.308E-12	9.31731E-12	-865.231E-12	9.24136E-12
-418.000E-3	-858.443E-12	8.78452E-12	-861.038E-12	8.79265E-12
-416.000E-3	-856.209E-12	8.47400E-12	-857.433E-12	8.36647E-12
-414.000E-3	-851.281E-12	8.06501E-12	-853.584E-12	8.02185E-12
-412.000E-3	-849.116E-12	7.64745E-12	-850.239E-12	7.58979E-12
-410.000E-3	-844.725E-12	7.47866E-12	-846.786E-12	7.41115E-12
-408.000E-3	-842.540E-12	7.21388E-12	-844.048E-12	7.17855E-12
-406.000E-3	-838.752E-12	7.08073E-12	-840.620E-12	7.14699E-12
-404.000E-3	-836.646E-12	7.06712E-12	-838.459E-12	7.03313E-12
-402.000E-3	-832.933E-12	7.01405E-12	-835.346E-12	7.03719E-12
-400.000E-3	-830.278E-12	6.90402E-12	-833.323E-12	6.97445E-12
-398.000E-3	-826.746E-12	6.89917E-12	-829.642E-12	6.91636E-12
-396.000E-3	-824.147E-12	7.07609E-12	-826.984E-12	7.05076E-12
-394.000E-3	-820.432E-12	7.16132E-12	-823.325E-12	7.21092E-12
-392.000E-3	-818.114E-12	7.40730E-12	-820.622E-12	7.45109E-12
-390.000E-3	-814.531E-12	7.82000E-12	-816.884E-12	7.73670E-12
-388.000E-3	-811.927E-12	7.95529E-12	-813.976E-12	8.08846E-12
-386.000E-3	-808.176E-12	8.43579E-12	-809.906E-12	8.47251E-12
-384.000E-3	-804.792E-12	9.05867E-12	-806.852E-12	9.13393E-12
-382.000E-3	-800.212E-12	9.82501E-12	-802.162E-12	9.90522E-12
-380.000E-3	-796.092E-12	10.5323E-12	-798.028E-12	10.5160E-12
-378.000E-3	-790.911E-12	11.5295E-12	-792.534E-12	11.3928E-12
-376.000E-3	-785.675E-12	12.5314E-12	-787.674E-12	12.4736E-12
-374.000E-3	-779.780E-12	13.8550E-12	-781.652E-12	13.6818E-12
-372.000E-3	-773.926E-12	14.9319E-12	-775.965E-12	14.9852E-12
-370.000E-3	-767.350E-12	16.2606E-12	-768.698E-12	16.3091E-12
-368.000E-3	-760.459E-12	17.3629E-12	-762.595E-12	17.5355E-12
-366.000E-3	-752.778E-12	18.2335E-12	-754.610E-12	18.4855E-12
-364.000E-3	-745.094E-12	18.6564E-12	-747.681E-12	18.8146E-12
-362.000E-3	-737.486E-12	18.7713E-12	-739.106E-12	18.7493E-12
-360.000E-3	-729.821E-12	18.5940E-12	-731.770E-12	18.5544E-12
-358.000E-3	-722.232E-12	17.9578E-12	-723.585E-12	18.0459E-12
-356.000E-3	-715.284E-12	17.0539E-12	-716.786E-12	17.0979E-12
-354.000E-3	-707.927E-12	15.9865E-12	-709.524E-12	15.9910E-12
-352.000E-3	-701.607E-12	14.6877E-12	-703.571E-12	14.9347E-12
-350.000E-3	-695.155E-12	13.5880E-12	-697.631E-12	13.7118E-12
-348.000E-3	-690.168E-12	12.4954E-12	-692.458E-12	12.4966E-12
-346.000E-3	-684.642E-12	11.4871E-12	-686.669E-12	11.6108E-12
-344.000E-3	-680.215E-12	10.8089E-12	-682.096E-12	10.6220E-12
-342.000E-3	-675.243E-12	10.2120E-12	-677.193E-12	10.1720E-12
-340.000E-3	-671.217E-12	9.55619E-12	-672.768E-12	9.55803E-12
-338.000E-3	-666.882E-12	9.06330E-12	-668.397E-12	9.05857E-12
-336.000E-3	-663.472E-12	8.63856E-12	-664.961E-12	8.70970E-12
-334.000E-3	-659.327E-12	8.24593E-12	-660.934E-12	8.28657E-12
-332.000E-3	-656.444E-12	7.78890E-12	-657.717E-12	7.78905E-12
-330.000E-3	-652.966E-12	7.65043E-12	-653.990E-12	7.62078E-12
-328.000E-3	-650.262E-12	7.26217E-12	-651.168E-12	7.37724E-12
-326.000E-3	-646.876E-12	7.17568E-12	-647.929E-12	7.21091E-12
-324.000E-3	-644.082E-12	6.85651E-12	-645.012E-12	7.04256E-12
-322.000E-3	-640.875E-12	6.75828E-12	-642.275E-12	6.77420E-12
-320.000E-3	-638.178E-12	6.63984E-12	-639.610E-12	6.83726E-12
-318.000E-3	-635.003E-12	6.58041E-12	-636.773E-12	6.71004E-12
-316.000E-3	-632.233E-12	6.71416E-12	-634.238E-12	6.62665E-12
-314.000E-3	-629.302E-12	6.64819E-12	-631.530E-12	6.60345E-12
-312.000E-3	-626.474E-12	6.75529E-12	-628.467E-12	6.61317E-12
-310.000E-3	-623.867E-12	6.66955E-12	-625.810E-12	6.73174E-12
-308.000E-3	-620.739E-12	6.65928E-12	-622.720E-12	6.70470E-12
-306.000E-3	-618.174E-12	6.64338E-12	-619.763E-12	6.71394E-12
-304.000E-3	-614.830E-12	6.65429E-12	-616.565E-12	6.58985E-12
-302.000E-3	-612.563E-12	6.56782E-12	-613.819E-12	6.67375E-12
-300.000E-3	-609.062E-12	6.60975E-12	-611.065E-12	6.60355E-12
-298.000E-3	-606.943E-12	6.59545E-12	-608.125E-12	6.68168E-12
-296.000E-3	-603.879E-12	6.66764E-12	-605.478E-12	6.55830E-12
-294.000E-3	-601.588E-12	6.54900E-12	-602.585E-12	6.65698E-12
-292.000E-3	-598.255E-12	6.67017E-12	-599.960E-12	6.69761E-12
-290.000E-3	-595.632E-12	6.72644E-12	-596.832E-12	6.74906E-12
-288.000E-3	-592.530E-12	6.75014E-12	-593.997E-12	6.82391E-12
-286.000E-3	-589.949E-12	6.86700E-12	-590.683E-12	6.80860E-12
-284.000E-3	-586.804E-12	6.99880E-12	-587.884E-12	6.96813E-12
-282.000E-3	-583.900E-12	7.05677E-12	-584.984E-12	7.09852E-12
-280.000E-3	-580.726E-12	7.23934E-12	-581.769E-12	7.24077E-12
-278.000E-3	-577.585E-12	7.57960E-12	-578.681E-12	7.63132E-12
-276.000E-3	-574.419E-12	7.64768E-12	-575.727E-12	7.79432E-12
-274.000E-3	-571.206E-12	8.03720E-12	-572.288E-12	8.09059E-12
-272.000E-3	-567.534E-12	8.35616E-12	-568.929E-12	8.40000E-12
-270.000E-3	-563.833E-12	8.84053E-12	-565.226E-12	8.87722E-12
-268.000E-3	-559.558E-12	9.46927E-12	-561.420E-12	9.41468E-12
-266.000E-3	-555.477E-12	10.0787E-12	-557.333E-12	10.1999E-12
-264.000E-3	-551.081E-12	10.9540E-12	-552.615E-12	10.9269E-12
-262.000E-3	-546.356E-12	11.7620E-12	-548.166E-12	11.8060E-12
-260.000E-3	-540.747E-12	12.6515E-12	-542.660E-12	12.8008E-12
-258.000E-3	-535.290E-12	13.6528E-12	-537.278E-12	13.7968E-12
-256.000E-3	-529.142E-12	14.6971E-12	-530.609E-12	14.8881E-12
-254.000E-3	-522.827E-12	15.9338E-12	-524.207E-12	15.8854E-12
-252.000E-3	-515.781E-12	16.7636E-12	-516.631E-12	16.8501E-12
-250.000E-3	-508.782E-12	17.6716E-12	-509.856E-12	17.7742E-12
-248.000E-3	-500.959E-12	18.4926E-12	-501.425E-12	18.4143E-12
-246.000E-3	-493.243E-12	18.8781E-12	-494.454E-12	18.9952E-12
-244.000E-3	-485.111E-12	19.2173E-12	-486.065E-12	19.2854E-12
-242.000E-3	-477.552E-12	19.2341E-12	-478.683E-12	19.3407E-12
-240.000E-3	-469.741E-12	18.8564E-12	-470.314E-12	18.8106E-12
-238.000E-3	-462.269E-12	18.0893E-12	-463.025E-12	18.1801E-12
-236.000E-3	-454.659E-12	17.1304E-12	-455.251E-12	17.0990E-12
-234.000E-3	-447.779E-12	16.0814E-12	-448.507E-12	16.0178E-12
-232.000E-3	-441.292E-12	14.8924E-12	-441.753E-12	14.9730E-12
-230.000E-3	-434.974E-12	13.7954E-12	-435.926E-12	13.9904E-12
-228.000E-3	-429.210E-12	12.8183E-12	-430.069E-12	12.8831E-12
-226.000E-3	-423.826E-12	11.8604E-12	-425.074E-12	11.8907E-12
-224.000E-3	-419.156E-12	11.0299E-12	-420.081E-12	11.0918E-12
-222.000E-3	-414.314E-12	10.2863E-12	-415.691E-12	10.3273E-12
-220.000E-3	-410.146E-12	9.57276E-12	-411.025E-12	9.54662E-12
-218.000E-3	-405.796E-12	9.04458E-12	-407.284E-12	9.04927E-12
-216.000E-3	-402.242E-12	8.44725E-12	-403.156E-12	8.60574E-12
-214.000E-3	-398.511E-12	8.14676E-12	-399.894E-12	8.24433E-12
-212.000E-3	-395.159E-12	7.74215E-12	-396.236E-12	7.82917E-12
-210.000E-3	-391.874E-12	7.50809E-12	-393.229E-12	7.50174E-12
-208.000E-3	-389.036E-12	7.22191E-12	-389.778E-12	7.28392E-12
-206.000E-3	-386.155E-12	7.07842E-12	-386.922E-12	7.12872E-12
-204.000E-3	-383.033E-12	6.96199E-12	-383.579E-12	7.03442E-12
-202.000E-3	-380.260E-12	7.09192E-12	-380.831E-12	7.09197E-12
-200.000E-3	-377.029E-12	7.03587E-12	-377.232E-12	7.05945E-12
-198.000E-3	-374.207E-12	7.11162E-12	-374.427E-12	7.20001E-12
-196.000E-3	-370.681E-12	7.31125E-12	-371.224E-12	7.28639E-12
-194.000E-3	-367.777E-12	7.44681E-12	-368.333E-12	7.35578E-12
-192.000E-3	-364.491E-12	7.36104E-12	-365.220E-12	7.54939E-12
-190.000E-3	-361.721E-12	7.55565E-12	-362.421E-12	7.54305E-12
-188.000E-3	-358.117E-12	7.52699E-12	-358.955E-12	7.55922E-12
-186.000E-3	-355.201E-12	7.52659E-12	-355.970E-12	7.67276E-12
-184.000E-3	-351.539E-12	7.62965E-12	-352.464E-12	7.74310E-12
-182.000E-3	-348.612E-12	7.72354E-12	-349.452E-12	7.75756E-12
-180.000E-3	-344.950E-12	7.77803E-12	-345.769E-12	7.80049E-12
-178.000E-3	-341.643E-12	7.77186E-12	-342.605E-12	7.83188E-12
-176.000E-3	-338.205E-12	7.93205E-12	-339.015E-12	7.84476E-12
-174.000E-3	-334.904E-12	7.97666E-12	-335.909E-12	7.88481E-12
-172.000E-3	-331.635E-12	7.91367E-12	-332.371E-12	7.92528E-12
-170.000E-3	-328.232E-12	7.98798E-12	-329.218E-12	7.89380E-12
-168.000E-3	-325.100E-12	7.88752E-12	-325.597E-12	7.84027E-12
-166.000E-3	-321.598E-12	7.61689E-12	-322.431E-12	7.65304E-12
-164.000E-3	-318.482E-12	7.53504E-12	-318.893E-12	7.46072E-12
-162.000E-3	-315.271E-12	7.31827E-12	-315.952E-12	7.33417E-12
-160.000E-3	-312.269E-12	7.11198E-12	-312.931E-12	7.08633E-12
-158.000E-3	-309.181E-12	6.85911E-12	-310.155E-12	7.01386E-12
-156.000E-3	-306.636E-12	6.77558E-12	-307.076E-12	6.85592E-12
-154.000E-3	-303.561E-12	6.57218E-12	-304.435E-12	6.70509E-12
-152.000E-3	-301.108E-12	6.48062E-12	-301.454E-12	6.57965E-12
-150.000E-3	-298.214E-12	6.47405E-12	-298.877E-12	6.43110E-12
-148.000E-3	-295.751E-12	6.27570E-12	-295.909E-12	6.21007E-12
-146.000E-3	-292.813E-12	6.18807E-12	-293.375E-12	6.21486E-12
-144.000E-3	-290.209E-12	6.14253E-12	-290.565E-12	6.11583E-12
-142.000E-3	-287.362E-12	6.22738E-12	-288.042E-12	6.14938E-12
-140.000E-3	-284.702E-12	6.16415E-12	-285.222E-12	6.19885E-12
-138.000E-3	-281.962E-12	6.21307E-12	-282.714E-12	6.25585E-12
-136.000E-3	-279.255E-12	6.23279E-12	-280.032E-12	6.30411E-12
-134.000E-3	-276.591E-12	6.19874E-12	-277.395E-12	6.27202E-12
-132.000E-3	-273.824E-12	6.34570E-12	-274.422E-12	6.35823E-12
-130.000E-3	-271.181E-12	6.31618E-12	-271.619E-12	6.39409E-12
-128.000E-3	-268.351E-12	6.43241E-12	-268.913E-12	6.50125E-12
-126.000E-3	-265.776E-12	6.49042E-12	-266.336E-12	6.60152E-12
-124.000E-3	-262.822E-12	6.57814E-12	-263.361E-12	6.59827E-12
-122.000E-3	-260.185E-12	6.66996E-12	-260.715E-12	6.81270E-12
-120.000E-3	-257.362E-12	6.89026E-12	-257.993E-12	6.85427E-12
-118.000E-3	-254.452E-12	7.02542E-12	-254.943E-12	6.89894E-12
-116.000E-3	-251.453E-12	7.18938E-12	-252.022E-12	7.10515E-12
-114.000E-3	-248.455E-12	7.32286E-12	-248.899E-12	7.35271E-12
-112.000E-3	-245.401E-12	7.52205E-12	-245.823E-12	7.53649E-12
-110.000E-3	-241.951E-12	7.80415E-12	-242.393E-12	7.78260E-12
-108.000E-3	-238.616E-12	8.13180E-12	-239.018E-12	8.18667E-12
-106.000E-3	-234.946E-12	8.48149E-12	-235.390E-12	8.48973E-12
-104.000E-3	-231.384E-12	8.88354E-12	-231.739E-12	8.85721E-12
-102.000E-3	-227.273E-12	9.29645E-12	-227.724E-12	9.38511E-12
-100.000E-3	-223.363E-12	9.88192E-12	-223.702E-12	9.87699E-12
-98.0000E-3	-218.841E-12	10.3238E-12	-219.298E-12	10.3555E-12
-96.0000E-3	-214.422E-12	10.9279E-12	-214.814E-12	10.9346E-12
-94.0000E-3	-209.303E-12	11.5648E-12	-209.838E-12	11.6592E-12
-92.0000E-3	-204.536E-12	12.4287E-12	-204.775E-12	12.3024E-12
-90.0000E-3	-198.932E-12	13.1184E-12	-199.232E-12	13.1417E-12
-88.0000E-3	-193.302E-12	14.0018E-12	-193.617E-12	14.1041E-12
-86.0000E-3	-187.074E-12	14.8679E-12	-187.539E-12	14.7555E-12
-84.0000E-3	-180.908E-12	15.5566E-12	-181.193E-12	15.5795E-12
-82.0000E-3	-174.242E-12	16.1510E-12	-174.512E-12	16.1937E-12
-80.0000E-3	-167.432E-12	16.6540E-12	-167.677E-12	16.6859E-12
-78.0000E-3	-160.277E-12	16.9629E-12	-160.564E-12	17.0817E-12
-76.0000E-3	-153.172E-12	17.2702E-12	-153.292E-12	17.2699E-12
-74.0000E-3	-145.785E-12	17.3521E-12	-146.029E-12	17.4394E-12
-72.0000E-3	-138.655E-12	17.2730E-12	-138.739E-12	17.3385E-12
-70.0000E-3	-131.369E-12	17.0194E-12	-131.540E-12	17.0285E-12
-68.0000E-3	-124.379E-12	16.5487E-12	-124.530E-12	16.5462E-12
-66.0000E-3	-117.481E-12	15.8915E-12	-117.654E-12	15.9159E-12
-64.0000E-3	-111.058E-12	15.2061E-12	-111.150E-12	15.2371E-12
-62.0000E-3	-104.603E-12	14.4641E-12	-104.852E-12	14.4353E-12
-60.0000E-3	-98.6921E-12	13.6833E-12	-98.9416E-12	13.7348E-12
-58.0000E-3	-92.8749E-12	12.9630E-12	-93.0848E-12	13.0080E-12
-56.0000E-3	-87.6047E-12	12.3466E-12	-87.7256E-12	12.3554E-12
-54.0000E-3	-82.4380E-12	11.7065E-12	-82.5718E-12	11.7226E-12
-52.0000E-3	-77.6788E-12	11.1299E-12	-77.7070E-12	11.1332E-12
-50.0000E-3	-72.9505E-12	10.6534E-12	-73.0354E-12	10.5425E-12
-48.0000E-3	-68.6224E-12	10.0441E-12	-68.6995E-12	10.0630E-12
-46.0000E-3	-64.3454E-12	9.61336E-12	-64.4665E-12	9.68620E-12
-44.0000E-3	-60.4412E-12	9.23060E-12	-60.5101E-12	9.22353E-12
-42.0000E-3	-56.4898E-12	8.81771E-12	-56.6136E-12	8.83809E-12
-40.0000E-3	-52.9003E-12	8.46866E-12	-52.9661E-12	8.49684E-12
-38.0000E-3	-49.3066E-12	8.12135E-12	-49.3965E-12	8.08952E-12
-36.0000E-3	-46.0038E-12	7.81074E-12	-46.0525E-12	7.80407E-12
-34.0000E-3	-42.7032E-12	7.53316E-12	-42.7063E-12	7.56001E-12
-32.0000E-3	-39.5523E-12	7.34318E-12	-39.5383E-12	7.35480E-12
-30.0000E-3	-36.3785E-12	7.28510E-12	-36.4314E-12	7.27990E-12
-28.0000E-3	-33.3130E-12	7.17665E-12	-33.4133E-12	7.14264E-12
-26.0000E-3	-30.3322E-12	7.08604E-12	-30.4005E-12	7.13872E-12
-24.0000E-3	-27.3400E-12	6.99267E-12	-27.3852E-12	7.01150E-12
-22.0000E-3	-24.4549E-12	6.86927E-12	-24.3902E-12	6.91885E-12
-20.0000E-3	-21.4544E-12	6.69611E-12	-21.4657E-12	6.70509E-12
-18.0000E-3	-18.6080E-12	6.66296E-12	-18.6093E-12	6.64700E-12
-16.0000E-3	-15.7994E-12	6.47639E-12	-15.8395E-12	6.45636E-12
-14.0000E-3	-13.0376E-12	6.41727E-12	-13.0533E-12	6.40510E-12
-12.0000E-3	-10.3627E-12	6.32788E-12	-10.3209E-12	6.33238E-12
-10.0000E-3	-7.65759E-12	6.30058E-12	-7.57563E-12	6.33310E-12
-8.00000E-3	-4.90796E-12	6.28326E-12	-4.89376E-12	6.29410E-12
-6.00000E-3	-2.22469E-12	6.29895E-12	-2.18690E-12	6.34067E-12
-4.00000E-3	549.530E-15	6.38456E-12	505.056E-15	6.42932E-12
-2.00000E-3	3.23562E-12	6.42174E-12	3.21261E-12	6.51744E-12
0.00000E+0	6.02668E-12	6.61258E-12	6.04856E-12	6.64133E-12
2.00000E-3	8.88174E-12	6.79433E-12	8.92082E-12	6.80985E-12
4.00000E-3	11.8886E-12	7.00068E-12	11.8922E-12	6.99881E-12
6.00000E-3	14.9323E-12	7.36604E-12	14.9769E-12	7.31069E-12
8.00000E-3	18.1429E-12	7.52315E-12	18.1817E-12	7.67282E-12
10.0000E-3	21.4044E-12	7.84311E-12	21.4846E-12	7.85394E-12
12.0000E-3	24.8126E-12	8.12702E-12	24.8270E-12	8.13733E-12
14.0000E-3	28.2711E-12	8.28581E-12	28.3718E-12	8.31019E-12
16.0000E-3	31.8694E-12	8.45965E-12	31.8735E-12	8.46637E-12
18.0000E-3	35.5076E-12	8.53720E-12	35.5957E-12	8.64144E-12
20.0000E-3	39.1038E-12	8.72244E-12	39.1386E-12	8.71959E-12
22.0000E-3	42.7572E-12	8.73764E-12	42.8549E-12	8.75046E-12
24.0000E-3	46.4451E-12	8.65463E-12	46.4362E-12	8.66804E-12
26.0000E-3	50.0938E-12	8.57294E-12	50.1858E-12	8.60654E-12
28.0000E-3	53.7337E-12	8.52846E-12	53.8319E-12	8.58705E-12
30.0000E-3	57.3588E-12	8.48270E-12	57.5022E-12	8.43673E-12
32.0000E-3	60.8845E-12	8.38723E-12	61.0253E-12	8.42535E-12
34.0000E-3	64.4375E-12	8.24125E-12	64.5169E-12	8.22642E-12
36.0000E-3	68.0026E-12	8.10703E-12	68.0593E-12	8.13852E-12
38.0000E-3	71.3241E-12	7.98909E-12	71.4561E-12	7.98794E-12
40.0000E-3	74.8100E-12	7.84964E-12	74.8102E-12	7.84862E-12
42.0000E-3	78.0031E-12	7.73895E-12	78.1855E-12	7.69318E-12
44.0000E-3	81.3858E-12	7.59574E-12	81.4325E-12	7.50707E-12
46.0000E-3	84.4172E-12	7.50924E-12	84.6650E-12	7.38682E-12
48.0000E-3	87.6885E-12	7.20444E-12	87.7241E-12	7.22613E-12
50.0000E-3	90.6241E-12	7.11873E-12	90.7631E-12	7.04850E-12
52.0000E-3	93.7277E-12	6.95475E-12	93.7444E-12	6.89311E-12
54.0000E-3	96.6259E-12	6.74417E-12	96.7483E-12	6.80203E-12
56.0000E-3	99.6557E-12	6.76431E-12	99.5749E-12	6.79322E-12
58.0000E-3	102.465E-12	6.77989E-12	102.510E-12	6.78727E-12
60.0000E-3	105.295E-12	6.74267E-12	105.350E-12	6.76677E-12
62.0000E-3	108.181E-12	6.73639E-12	108.255E-12	6.71630E-12
64.0000E-3	110.957E-12	6.71518E-12	111.133E-12	6.71862E-12
66.0000E-3	113.808E-12	6.69119E-12	114.006E-12	6.72647E-12
68.0000E-3	116.519E-12	6.66033E-12	116.756E-12	6.63770E-12
70.0000E-3	119.368E-12	6.62894E-12	119.544E-12	6.55430E-12
72.0000E-3	122.094E-12	6.63749E-12	122.395E-12	6.60241E-12
74.0000E-3	125.030E-12	6.54860E-12	125.220E-12	6.58958E-12
76.0000E-3	127.759E-12	6.59257E-12	127.873E-12	6.59115E-12
78.0000E-3	130.675E-12	6.65351E-12	130.755E-12	6.63072E-12
80.0000E-3	133.448E-12	6.57603E-12	133.561E-12	6.62025E-12
82.0000E-3	136.420E-12	6.70765E-12	136.522E-12	6.75549E-12
84.0000E-3	139.277E-12	6.80714E-12	139.351E-12	6.75169E-12
86.0000E-3	142.304E-12	6.84048E-12	142.369E-12	6.80813E-12
88.0000E-3	145.119E-12	6.95547E-12	145.218E-12	6.92905E-12
90.0000E-3	148.259E-12	7.10674E-12	148.362E-12	7.09400E-12
92.0000E-3	151.196E-12	7.27914E-12	151.361E-12	7.24076E-12
94.0000E-3	154.560E-12	7.48899E-12	154.548E-12	7.45663E-12
96.0000E-3	157.653E-12	7.70200E-12	157.718E-12	7.69699E-12
98.0000E-3	161.122E-12	8.01336E-12	161.125E-12	7.99103E-12
100.000E-3	164.341E-12	8.15511E-12	164.507E-12	8.18557E-12
102.000E-3	168.058E-12	8.40433E-12	168.071E-12	8.48921E-12
104.000E-3	171.536E-12	8.72591E-12	171.730E-12	8.70030E-12
106.000E-3	175.268E-12	9.03181E-12	175.483E-12	8.98313E-12
108.000E-3	179.112E-12	9.31096E-12	179.290E-12	9.33118E-12
110.000E-3	183.084E-12	9.57449E-12	183.374E-12	9.67895E-12
112.000E-3	187.163E-12	9.92793E-12	187.439E-12	9.88642E-12
114.000E-3	191.520E-12	10.2147E-12	191.828E-12	10.2353E-12
116.000E-3	195.819E-12	10.5569E-12	196.080E-12	10.5920E-12
118.000E-3	200.420E-12	10.8516E-12	200.778E-12	10.9180E-12
120.000E-3	205.036E-12	11.1978E-12	205.376E-12	11.1709E-12
122.000E-3	209.991E-12	11.4144E-12	210.243E-12	11.4554E-12
124.000E-3	214.726E-12	11.6344E-12	214.940E-12	11.6503E-12
126.000E-3	219.995E-12	11.8692E-12	220.037E-12	11.8744E-12
128.000E-3	224.986E-12	12.1715E-12	225.050E-12	12.0945E-12
130.000E-3	230.442E-12	12.5190E-12	230.327E-12	12.4469E-12
132.000E-3	235.385E-12	12.5312E-12	235.463E-12	12.5952E-12
134.000E-3	241.000E-12	12.6324E-12	241.102E-12	12.6860E-12
136.000E-3	246.126E-12	12.5924E-12	246.472E-12	12.6486E-12
138.000E-3	251.482E-12	12.5598E-12	251.900E-12	12.4901E-12
140.000E-3	256.532E-12	12.4050E-12	256.952E-12	12.3872E-12
142.000E-3	261.800E-12	12.2221E-12	262.353E-12	12.2153E-12
144.000E-3	266.793E-12	11.8725E-12	267.243E-12	11.9172E-12
146.000E-3	271.806E-12	11.5799E-12	272.390E-12	11.5719E-12
148.000E-3	276.648E-12	11.3561E-12	276.851E-12	11.3565E-12
150.000E-3	281.476E-12	11.0553E-12	281.931E-12	11.1387E-12
152.000E-3	286.041E-12	10.7386E-12	286.225E-12	10.8113E-12
154.000E-3	290.554E-12	10.4815E-12	291.136E-12	10.6045E-12
156.000E-3	294.869E-12	10.3206E-12	295.181E-12	10.4453E-12
158.000E-3	299.279E-12	10.1744E-12	299.788E-12	10.0912E-12
160.000E-3	303.570E-12	9.89598E-12	303.551E-12	9.97551E-12
162.000E-3	307.801E-12	9.75027E-12	307.823E-12	9.71139E-12
164.000E-3	311.926E-12	9.63651E-12	311.965E-12	9.58304E-12
166.000E-3	315.958E-12	9.43959E-12	316.082E-12	9.39992E-12
168.000E-3	319.921E-12	9.19815E-12	320.120E-12	9.15854E-12
170.000E-3	323.731E-12	9.11217E-12	324.100E-12	9.10385E-12
172.000E-3	327.553E-12	8.92039E-12	328.081E-12	9.02544E-12
174.000E-3	331.393E-12	8.74581E-12	331.816E-12	8.81518E-12
176.000E-3	334.963E-12	8.64872E-12	335.675E-12	8.70824E-12
178.000E-3	338.733E-12	8.48607E-12	339.254E-12	8.55532E-12
180.000E-3	342.268E-12	8.31145E-12	342.743E-12	8.42952E-12
182.000E-3	346.046E-12	8.24864E-12	346.308E-12	8.32715E-12
184.000E-3	349.462E-12	8.24148E-12	349.885E-12	8.32337E-12
186.000E-3	353.222E-12	8.29604E-12	353.023E-12	8.19266E-12
188.000E-3	356.139E-12	8.16168E-12	356.715E-12	8.13052E-12
190.000E-3	359.909E-12	8.10916E-12	359.855E-12	8.09163E-12
192.000E-3	362.931E-12	8.04063E-12	363.394E-12	8.05491E-12
194.000E-3	366.752E-12	8.08491E-12	366.773E-12	8.02215E-12
196.000E-3	369.834E-12	7.99160E-12	370.451E-12	8.02667E-12
198.000E-3	373.459E-12	8.00571E-12	373.750E-12	7.91761E-12
200.000E-3	376.756E-12	7.99558E-12	377.329E-12	7.95471E-12
202.000E-3	380.286E-12	7.91228E-12	380.432E-12	8.00019E-12
204.000E-3	383.524E-12	7.94419E-12	384.037E-12	7.97737E-12
206.000E-3	386.866E-12	7.85514E-12	387.246E-12	7.85397E-12
208.000E-3	390.205E-12	7.80659E-12	390.697E-12	7.80902E-12
210.000E-3	393.401E-12	7.73840E-12	394.106E-12	7.73575E-12
212.000E-3	396.965E-12	7.77643E-12	397.430E-12	7.68156E-12
214.000E-3	400.246E-12	7.83844E-12	400.747E-12	7.77722E-12
216.000E-3	403.987E-12	8.04600E-12	403.908E-12	7.92770E-12
218.000E-3	407.128E-12	8.11523E-12	407.387E-12	8.01894E-12
220.000E-3	411.012E-12	8.25418E-12	410.554E-12	8.15482E-12
222.000E-3	414.119E-12	8.29137E-12	414.461E-12	8.37475E-12
224.000E-3	417.985E-12	8.30247E-12	417.692E-12	8.30221E-12
226.000E-3	420.884E-12	8.28903E-12	421.486E-12	8.20523E-12
228.000E-3	424.840E-12	8.25897E-12	425.032E-12	8.23335E-12
230.000E-3	427.595E-12	8.17500E-12	428.729E-12	8.24143E-12
232.000E-3	431.653E-12	8.16533E-12	431.796E-12	8.12432E-12
234.000E-3	434.635E-12	8.19906E-12	435.331E-12	8.13825E-12
236.000E-3	438.644E-12	8.16647E-12	438.712E-12	8.15502E-12
238.000E-3	441.696E-12	8.29801E-12	442.097E-12	8.23040E-12
240.000E-3	445.729E-12	8.33573E-12	445.799E-12	8.29768E-12
242.000E-3	448.781E-12	8.34106E-12	449.284E-12	8.38423E-12
244.000E-3	452.642E-12	8.37691E-12	452.969E-12	8.34139E-12
246.000E-3	455.862E-12	8.41163E-12	456.513E-12	8.46044E-12
248.000E-3	459.791E-12	8.37219E-12	460.069E-12	8.43247E-12
250.000E-3	463.206E-12	8.40000E-12	463.530E-12	8.40823E-12
252.000E-3	466.941E-12	8.48967E-12	466.999E-12	8.51166E-12
254.000E-3	470.563E-12	8.38141E-12	470.375E-12	8.38856E-12
256.000E-3	474.212E-12	8.37449E-12	474.393E-12	8.43313E-12
258.000E-3	477.653E-12	8.39522E-12	477.850E-12	8.41181E-12
260.000E-3	481.353E-12	8.34171E-12	481.875E-12	8.42744E-12
262.000E-3	484.966E-12	8.28435E-12	485.151E-12	8.31781E-12
264.000E-3	488.487E-12	8.26656E-12	489.075E-12	8.14809E-12
266.000E-3	491.781E-12	8.11847E-12	492.140E-12	8.29437E-12
268.000E-3	495.231E-12	8.16498E-12	495.741E-12	8.19979E-12
270.000E-3	498.572E-12	8.22128E-12	498.763E-12	8.24113E-12
272.000E-3	502.299E-12	8.20170E-12	502.205E-12	8.24399E-12
274.000E-3	505.434E-12	8.15172E-12	505.525E-12	8.11884E-12
276.000E-3	508.882E-12	8.12249E-12	509.165E-12	8.16161E-12
278.000E-3	512.241E-12	8.11256E-12	512.897E-12	8.10409E-12
280.000E-3	515.891E-12	8.07712E-12	516.445E-12	8.09838E-12
282.000E-3	519.436E-12	8.03985E-12	520.254E-12	8.14322E-12
284.000E-3	523.125E-12	8.00016E-12	523.453E-12	8.07315E-12
286.000E-3	526.491E-12	8.12937E-12	527.072E-12	8.11513E-12
288.000E-3	529.718E-12	8.08559E-12	530.081E-12	8.03587E-12
290.000E-3	533.463E-12	7.93631E-12	533.310E-12	8.03852E-12
292.000E-3	536.982E-12	8.13693E-12	536.712E-12	8.09484E-12
294.000E-3	540.665E-12	8.11112E-12	540.239E-12	8.04031E-12
296.000E-3	544.412E-12	8.10311E-12	544.124E-12	8.05670E-12
298.000E-3	547.781E-12	8.14295E-12	547.418E-12	8.14772E-12
300.000E-3	550.691E-12	8.19063E-12	551.099E-12	8.21261E-12
302.000E-3	554.041E-12	8.14734E-12	554.224E-12	8.24439E-12
304.000E-3	557.617E-12	8.20921E-12	557.693E-12	8.15566E-12
306.000E-3	561.006E-12	8.15641E-12	560.750E-12	8.23048E-12
308.000E-3	564.353E-12	8.10118E-12	564.367E-12	8.05611E-12
310.000E-3	567.466E-12	8.05762E-12	567.996E-12	8.19921E-12
312.000E-3	570.927E-12	8.03162E-12	571.321E-12	8.14679E-12
314.000E-3	574.584E-12	8.09716E-12	575.240E-12	8.21259E-12
316.000E-3	577.865E-12	8.20866E-12	578.798E-12	8.18648E-12
318.000E-3	581.344E-12	8.09539E-12	582.204E-12	8.11799E-12
320.000E-3	584.913E-12	8.19577E-12	585.315E-12	8.22750E-12
322.000E-3	588.327E-12	8.24491E-12	588.533E-12	8.25143E-12
324.000E-3	592.072E-12	8.36458E-12	591.782E-12	8.25317E-12
326.000E-3	595.492E-12	8.36261E-12	595.516E-12	8.37082E-12
328.000E-3	599.422E-12	8.39329E-12	599.233E-12	8.31309E-12
330.000E-3	602.832E-12	8.53961E-12	603.005E-12	8.43887E-12
332.000E-3	606.981E-12	8.49471E-12	607.024E-12	8.44035E-12
334.000E-3	610.081E-12	8.52335E-12	610.621E-12	8.46177E-12
336.000E-3	614.067E-12	8.56665E-12	614.276E-12	8.60495E-12
338.000E-3	617.473E-12	8.59417E-12	617.840E-12	8.78916E-12
340.000E-3	621.566E-12	8.78739E-12	621.261E-12	8.70782E-12
342.000E-3	624.795E-12	8.89131E-12	625.143E-12	8.91522E-12
344.000E-3	628.996E-12	9.03838E-12	628.697E-12	8.87236E-12
346.000E-3	632.927E-12	9.10333E-12	632.973E-12	9.09053E-12
348.000E-3	636.943E-12	9.37901E-12	636.581E-12	9.19175E-12
350.000E-3	640.469E-12	9.37430E-12	640.775E-12	9.46030E-12
352.000E-3	644.453E-12	9.49494E-12	644.613E-12	9.55238E-12
354.000E-3	648.245E-12	9.55287E-12	648.624E-12	9.68642E-12
356.000E-3	652.144E-12	9.65592E-12	652.350E-12	9.82590E-12
358.000E-3	656.214E-12	9.75828E-12	656.360E-12	9.77227E-12
360.000E-3	660.737E-12	9.84349E-12	660.616E-12	9.85172E-12
362.000E-3	665.141E-12	9.99558E-12	664.974E-12	10.0363E-12
364.000E-3	669.469E-12	10.0907E-12	669.702E-12	10.0753E-12
366.000E-3	673.929E-12	10.1739E-12	674.213E-12	10.1224E-12
368.000E-3	678.247E-12	10.2177E-12	678.751E-12	10.1179E-12
370.000E-3	682.472E-12	10.1954E-12	683.066E-12	10.1705E-12
372.000E-3	686.307E-12	10.2976E-12	687.344E-12	10.4208E-12
374.000E-3	691.010E-12	10.3024E-12	691.347E-12	10.2615E-12
376.000E-3	695.584E-12	10.3755E-12	695.430E-12	10.3659E-12
378.000E-3	700.387E-12	10.3131E-12	699.811E-12	10.4426E-12
380.000E-3	704.488E-12	10.3572E-12	704.089E-12	10.2848E-12
382.000E-3	709.348E-12	10.3052E-12	708.672E-12	10.2671E-12
384.000E-3	713.116E-12	10.1875E-12	713.047E-12	10.2977E-12
386.000E-3	717.850E-12	10.2344E-12	717.482E-12	10.2468E-12
388.000E-3	721.399E-12	10.0139E-12	721.611E-12	10.0637E-12
390.000E-3	725.832E-12	9.88880E-12	725.836E-12	9.83459E-12
392.000E-3	729.614E-12	9.84736E-12	730.061E-12	9.73807E-12
394.000E-3	734.012E-12	9.71194E-12	734.122E-12	9.75235E-12
396.000E-3	737.957E-12	9.61982E-12	738.214E-12	9.50511E-12
398.000E-3	742.278E-12	9.46638E-12	742.645E-12	9.43667E-12
400.000E-3	745.666E-12	9.37830E-12	746.512E-12	9.30984E-12
402.000E-3	750.156E-12	9.31888E-12	751.272E-12	9.42287E-12
404.000E-3	753.628E-12	9.34113E-12	754.574E-12	9.30867E-12
406.000E-3	758.202E-12	9.19427E-12	759.009E-12	9.27434E-12
408.000E-3	761.655E-12	9.23510E-12	761.554E-12	9.09520E-12
410.000E-3	766.351E-12	9.05212E-12	766.098E-12	9.08016E-12
412.000E-3	769.564E-12	9.00835E-12	769.438E-12	9.08223E-12
414.000E-3	774.197E-12	8.88061E-12	774.231E-12	8.86070E-12
416.000E-3	777.071E-12	8.82060E-12	777.357E-12	8.75254E-12
418.000E-3	781.736E-12	8.80888E-12	781.937E-12	8.68017E-12
420.000E-3	784.883E-12	8.81732E-12	785.179E-12	8.49761E-12
422.000E-3	789.306E-12	8.74435E-12	789.194E-12	8.65841E-12
424.000E-3	792.211E-12	8.57379E-12	792.236E-12	8.66648E-12
426.000E-3	796.329E-12	8.66243E-12	795.885E-12	8.55152E-12
428.000E-3	799.721E-12	8.51210E-12	799.239E-12	8.65891E-12
430.000E-3	803.627E-12	8.58856E-12	803.186E-12	8.53923E-12
432.000E-3	806.964E-12	8.44942E-12	806.711E-12	8.58231E-12
434.000E-3	810.265E-12	8.42983E-12	810.620E-12	8.51416E-12
436.000E-3	814.046E-12	8.48445E-12	814.144E-12	8.36151E-12
438.000E-3	817.166E-12	8.50538E-12	817.763E-12	8.33117E-12
440.000E-3	820.690E-12	8.35557E-12	820.589E-12	8.23838E-12
442.000E-3	823.997E-12	8.24318E-12	824.337E-12	8.29416E-12
444.000E-3	827.093E-12	8.17161E-12	827.836E-12	8.26975E-12
446.000E-3	830.936E-12	8.14045E-12	831.707E-12	8.28182E-12
448.000E-3	834.394E-12	8.33036E-12	834.952E-12	8.17874E-12
450.000E-3	838.424E-12	8.13779E-12	839.046E-12	8.17104E-12
452.000E-3	841.597E-12	8.16088E-12	842.740E-12	8.19130E-12
454.000E-3	846.231E-12	8.30489E-12	846.832E-12	8.17258E-12
456.000E-3	849.359E-12	8.15345E-12	849.894E-12	8.31391E-12
458.000E-3	853.754E-12	8.20135E-12	853.083E-12	8.25616E-12
460.000E-3	856.623E-12	8.37369E-12	856.205E-12	8.28690E-12
462.000E-3	860.771E-12	8.26595E-12	859.771E-12	8.24896E-12
464.000E-3	863.258E-12	8.32948E-12	862.682E-12	8.22578E-12
466.000E-3	867.554E-12	8.42652E-12	866.875E-12	8.30291E-12
468.000E-3	870.368E-12	8.24205E-12	869.722E-12	8.20785E-12
470.000E-3	874.296E-12	8.24307E-12	874.198E-12	8.27564E-12
472.000E-3	877.209E-12	8.18988E-12	876.882E-12	8.31446E-12
474.000E-3	881.161E-12	8.14819E-12	881.042E-12	8.26790E-12
476.000E-3	883.873E-12	8.15605E-12	883.260E-12	8.16389E-12
478.000E-3	888.092E-12	7.98634E-12	887.892E-12	8.18264E-12
480.000E-3	890.724E-12	7.97272E-12	890.939E-12	8.00785E-12
482.000E-3	894.959E-12	7.86977E-12	895.211E-12	7.91945E-12
484.000E-3	896.968E-12	7.87210E-12	898.228E-12	7.77326E-12
486.000E-3	901.153E-12	7.69193E-12	902.034E-12	7.70295E-12
488.000E-3	903.674E-12	7.53798E-12	904.577E-12	7.69910E-12
490.000E-3	908.167E-12	7.68829E-12	908.301E-12	7.67578E-12
492.000E-3	910.853E-12	7.50155E-12	911.053E-12	7.62646E-12
494.000E-3	914.766E-12	7.62465E-12	914.806E-12	7.65971E-12
496.000E-3	917.621E-12	7.66884E-12	917.675E-12	7.70181E-12
498.000E-3	921.141E-12	7.70636E-12	921.075E-12	7.64273E-12
500.000E-3	924.090E-12	7.71000E-12	924.024E-12	7.67552E-12
